digraph Tree {
node [shape=box, style="filled, rounded", color="black", fontname=helvetica] ;
edge [fontname=helvetica] ;
0 [label="odor <= -0.78\ngini = 0.5\nsamples = 4125\nvalue = [3398, 3101]", fillcolor="#fdf4ee"] ;
1 [label="odor <= -1.73\ngini = 0.26\nsamples = 1406\nvalue = [330, 1864]", fillcolor="#5caeea"] ;
0 -> 1 [labeldistance=2.5, labelangle=45, headlabel="True"] ;
2 [label="gini = 0.0\nsamples = 212\nvalue = [330, 0]", fillcolor="#e58139"] ;
1 -> 2 ;
3 [label="gini = 0.0\nsamples = 1194\nvalue = [0, 1864]", fillcolor="#399de5"] ;
1 -> 3 ;
4 [label="stalk-root <= -0.57\ngini = 0.41\nsamples = 2719\nvalue = [3068, 1237]", fillcolor="#efb489"] ;
0 -> 4 [labeldistance=2.5, labelangle=-45, headlabel="False"] ;
5 [label="odor <= 0.88\ngini = 0.47\nsamples = 933\nvalue = [544, 918]", fillcolor="#aed7f4"] ;
4 -> 5 ;
6 [label="cap-color <= 1.57\ngini = 0.11\nsamples = 374\nvalue = [544, 33]", fillcolor="#e78945"] ;
5 -> 6 ;
7 [label="gill-size <= 0.41\ngini = 0.06\nsamples = 362\nvalue = [544, 17]", fillcolor="#e6853f"] ;
6 -> 7 ;
8 [label="gini = 0.0\nsamples = 330\nvalue = [511, 0]", fillcolor="#e58139"] ;
7 -> 8 ;
9 [label="spore-print-color <= 0.17\ngini = 0.45\nsamples = 32\nvalue = [33, 17]", fillcolor="#f2c29f"] ;
7 -> 9 ;
10 [label="gini = 0.0\nsamples = 23\nvalue = [33, 0]", fillcolor="#e58139"] ;
9 -> 10 ;
11 [label="gini = 0.0\nsamples = 9\nvalue = [0, 17]", fillcolor="#399de5"] ;
9 -> 11 ;
12 [label="gini = 0.0\nsamples = 12\nvalue = [0, 16]", fillcolor="#399de5"] ;
6 -> 12 ;
13 [label="gini = 0.0\nsamples = 559\nvalue = [0, 885]", fillcolor="#399de5"] ;
5 -> 13 ;
14 [label="habitat <= 1.74\ngini = 0.2\nsamples = 1786\nvalue = [2524, 319]", fillcolor="#e89152"] ;
4 -> 14 ;
15 [label="odor <= 0.64\ngini = 0.14\nsamples = 1677\nvalue = [2458, 207]", fillcolor="#e78c4a"] ;
14 -> 15 ;
16 [label="stalk-surface-below-ring <= 1.33\ngini = 0.07\nsamples = 1608\nvalue = [2458, 99]", fillcolor="#e68641"] ;
15 -> 16 ;
17 [label="stalk-color-above-ring <= 0.36\ngini = 0.05\nsamples = 1534\nvalue = [2385, 61]", fillcolor="#e6843e"] ;
16 -> 17 ;
18 [label="gini = 0.0\nsamples = 595\nvalue = [937, 0]", fillcolor="#e58139"] ;
17 -> 18 ;
19 [label="cap-color <= -1.57\ngini = 0.08\nsamples = 939\nvalue = [1448, 61]", fillcolor="#e68641"] ;
17 -> 19 ;
20 [label="gini = 0.0\nsamples = 12\nvalue = [0, 20]", fillcolor="#399de5"] ;
19 -> 20 ;
21 [label="spore-print-color <= 0.17\ngini = 0.05\nsamples = 927\nvalue = [1448, 41]", fillcolor="#e6853f"] ;
19 -> 21 ;
22 [label="gini = 0.0\nsamples = 840\nvalue = [1375, 0]", fillcolor="#e58139"] ;
21 -> 22 ;
23 [label="cap-color <= -0.0\ngini = 0.46\nsamples = 87\nvalue = [73, 41]", fillcolor="#f4c8a8"] ;
21 -> 23 ;
24 [label="gini = 0.0\nsamples = 38\nvalue = [52, 0]", fillcolor="#e58139"] ;
23 -> 24 ;
25 [label="habitat <= -0.59\ngini = 0.45\nsamples = 49\nvalue = [21, 41]", fillcolor="#9ecff2"] ;
23 -> 25 ;
26 [label="gini = 0.0\nsamples = 14\nvalue = [18, 0]", fillcolor="#e58139"] ;
25 -> 26 ;
27 [label="habitat <= 1.16\ngini = 0.13\nsamples = 35\nvalue = [3, 41]", fillcolor="#47a4e7"] ;
25 -> 27 ;
28 [label="gini = 0.0\nsamples = 32\nvalue = [0, 41]", fillcolor="#399de5"] ;
27 -> 28 ;
29 [label="gini = 0.0\nsamples = 3\nvalue = [3, 0]", fillcolor="#e58139"] ;
27 -> 29 ;
30 [label="bruises <= 0.17\ngini = 0.45\nsamples = 74\nvalue = [73, 38]", fillcolor="#f3c3a0"] ;
16 -> 30 ;
31 [label="ring-type <= 0.67\ngini = 0.38\nsamples = 35\nvalue = [13, 38]", fillcolor="#7dbfee"] ;
30 -> 31 ;
32 [label="gini = 0.0\nsamples = 25\nvalue = [0, 38]", fillcolor="#399de5"] ;
31 -> 32 ;
33 [label="gini = 0.0\nsamples = 10\nvalue = [13, 0]", fillcolor="#e58139"] ;
31 -> 33 ;
34 [label="gini = 0.0\nsamples = 39\nvalue = [60, 0]", fillcolor="#e58139"] ;
30 -> 34 ;
35 [label="gini = 0.0\nsamples = 69\nvalue = [0, 108]", fillcolor="#399de5"] ;
15 -> 35 ;
36 [label="cap-color <= -0.39\ngini = 0.47\nsamples = 109\nvalue = [66, 112]", fillcolor="#aed7f4"] ;
14 -> 36 ;
37 [label="gini = 0.0\nsamples = 26\nvalue = [37, 0]", fillcolor="#e58139"] ;
36 -> 37 ;
38 [label="population <= 0.68\ngini = 0.33\nsamples = 83\nvalue = [29, 112]", fillcolor="#6cb6ec"] ;
36 -> 38 ;
39 [label="bruises <= 0.17\ngini = 0.2\nsamples = 73\nvalue = [14, 112]", fillcolor="#52a9e8"] ;
38 -> 39 ;
40 [label="gini = 0.0\nsamples = 12\nvalue = [14, 0]", fillcolor="#e58139"] ;
39 -> 40 ;
41 [label="gini = 0.0\nsamples = 61\nvalue = [0, 112]", fillcolor="#399de5"] ;
39 -> 41 ;
42 [label="gini = 0.0\nsamples = 10\nvalue = [15, 0]", fillcolor="#e58139"] ;
38 -> 42 ;
}